double w1[32] = { 
0.4757225513458252, 
0.034649815410375595, 
-0.1134837344288826, 
0.12443447858095169, 
0.18477976322174072, 
-0.10393951833248138, 
0.3400733470916748, 
0.005117349326610565, 
0.637542188167572, 
0.07067345827817917, 
0.10099511593580246, 
0.40964120626449585, 
0.02504618652164936, 
0.1440691351890564, 
0.11402672529220581, 
-0.08610089123249054, 
0.02497851848602295, 
0.30990731716156006, 
0.09221997112035751, 
0.30284175276756287, 
0.2560514211654663, 
-0.20086315274238586, 
0.8256158232688904, 
0.08772564679384232, 
0.22061964869499207, 
0.32499533891677856, 
0.22696201503276825, 
0.631597638130188, 
0.07180935889482498, 
0.2041417807340622, 
0.6177499294281006, 
0.03136972710490227 
}

double b1[8] = { 
-0.005457279272377491, 
0.7416046857833862, 
0.7753337621688843, 
-0.006495057139545679, 
-0.0029744140338152647, 
-0.0034713067580014467, 
-0.008756792172789574, 
-0.0017198453424498439 
}

double w3[256] = { 
0.3205793797969818, 
-0.04440152645111084, 
0.060901351273059845, 
0.3881770670413971, 
0.4364784061908722, 
0.3900379240512848, 
0.6784711480140686, 
0.19731611013412476, 
0.673179030418396, 
-0.36959487199783325, 
-0.3349090814590454, 
0.6033847332000732, 
-0.06823654472827911, 
0.14246246218681335, 
0.7534554600715637, 
0.31127452850341797, 
-0.9187948703765869, 
-0.46623241901397705, 
0.10308831930160522, 
-0.6458464860916138, 
-0.5288365483283997, 
-0.040664736181497574, 
-1.1296175718307495, 
-0.04341243579983711, 
-0.5429733991622925, 
-0.21472981572151184, 
0.1792798638343811, 
-0.6095001101493835, 
-0.032712142914533615, 
-0.28002288937568665, 
-0.4711885452270508, 
0.22256916761398315, 
0.01194055937230587, 
0.149025097489357, 
0.220771923661232, 
0.3273214101791382, 
-0.20074991881847382, 
0.023012271150946617, 
-0.20951777696609497, 
0.21000505983829498, 
0.7445483803749084, 
0.7312074899673462, 
0.11399701982736588, 
0.30973443388938904, 
0.3225722312927246, 
-0.24409757554531097, 
0.7978357672691345, 
0.052277229726314545, 
0.3608051836490631, 
-0.39314672350883484, 
-0.2948262691497803, 
0.04875894635915756, 
-0.15040619671344757, 
-0.11665073037147522, 
-0.280467689037323, 
-0.26107510924339294, 
0.30783727765083313, 
0.21209481358528137, 
0.29382073879241943, 
-0.24862457811832428, 
-0.18734373152256012, 
-0.2528780400753021, 
-0.4255063235759735, 
-0.31122422218322754, 
-0.07318837940692902, 
-0.20742592215538025, 
-0.5916917324066162, 
-0.5653563737869263, 
-0.27242326736450195, 
0.21290619671344757, 
-0.39791208505630493, 
-0.05053343251347542, 
0.37069571018218994, 
-0.1421479880809784, 
-0.3786899745464325, 
0.24593445658683777, 
0.19826985895633698, 
0.04703275486826897, 
0.19140920042991638, 
0.055214773863554, 
-0.7929072976112366, 
-0.5776612758636475, 
-0.360724538564682, 
-0.6186569929122925, 
0.177596315741539, 
-0.29800307750701904, 
-0.865477442741394, 
-0.07624421268701553, 
0.9419339895248413, 
0.4092136323451996, 
0.1836867481470108, 
0.8199239373207092, 
0.1986636221408844, 
0.28872260451316833, 
0.25131186842918396, 
-0.007569576613605022, 
-0.35206738114356995, 
-0.20371539890766144, 
0.099079929292202, 
-0.32365918159484863, 
-0.08114732801914215, 
-0.18795481324195862, 
-0.22857162356376648, 
0.09631986171007156, 
0.9118553996086121, 
0.2601310908794403, 
0.06420868635177612, 
0.45470818877220154, 
-0.20691744983196259, 
-0.39285367727279663, 
0.765998125076294, 
0.41633713245391846, 
0.6083305478096008, 
-0.2965106666088104, 
-0.361992746591568, 
0.37881532311439514, 
0.1872078776359558, 
0.1994936615228653, 
0.44138556718826294, 
-0.23655965924263, 
-0.7653629779815674, 
0.07677855342626572, 
-0.13793377578258514, 
-0.5455242991447449, 
-0.22810512781143188, 
-0.3529142141342163, 
-0.900814950466156, 
0.18359516561031342, 
0.5961756706237793, 
0.3264975845813751, 
0.4144168794155121, 
0.6937926411628723, 
0.13616341352462769, 
0.48244526982307434, 
0.9170247316360474, 
0.3018931746482849, 
0.013946495950222015, 
-0.5805096626281738, 
-0.24750882387161255, 
0.0030918826814740896, 
-0.2784821391105652, 
0.04930252581834793, 
-0.697979748249054, 
0.2074514478445053, 
0.028844907879829407, 
0.5502536296844482, 
0.07519817352294922, 
0.8588643670082092, 
0.2889680564403534, 
-0.17904411256313324, 
1.1513919830322266, 
0.27566832304000854, 
-0.3758496046066284, 
-0.22543483972549438, 
-0.1750834435224533, 
-0.07613448053598404, 
-0.05631013587117195, 
-0.2671812176704407, 
-0.6150723099708557, 
-0.008504332043230534, 
0.32059139013290405, 
0.261072039604187, 
0.3596065044403076, 
0.37907248735427856, 
-0.04992237687110901, 
0.31324532628059387, 
-0.03717914596199989, 
-0.2710842788219452, 
-0.47477051615715027, 
-0.3567140996456146, 
-0.23084406554698944, 
-0.607008695602417, 
-0.2914070188999176, 
0.07809619605541229, 
-1.1240546703338623, 
-0.008201224729418755, 
0.6979078054428101, 
-0.0863487645983696, 
0.05903148651123047, 
0.8180760741233826, 
0.4943106770515442, 
0.01939266361296177, 
0.7390474677085876, 
0.238852396607399, 
-0.5818997621536255, 
-0.38499125838279724, 
0.19084709882736206, 
-0.3264974057674408, 
-0.37474963068962097, 
0.1929195076227188, 
-0.7755122780799866, 
0.23187002539634705, 
-0.48986712098121643, 
-0.23256665468215942, 
-0.4473404586315155, 
-0.764737606048584, 
-0.21926628053188324, 
-0.0804048702120781, 
-0.5927832722663879, 
0.10243503004312515, 
0.5600061416625977, 
0.15541201829910278, 
-0.12404657155275345, 
0.6785813570022583, 
0.09824851155281067, 
0.2792834937572479, 
0.8411381244659424, 
0.27543875575065613, 
-0.33989277482032776, 
0.5773141980171204, 
0.047506362199783325, 
0.45228853821754456, 
0.222689688205719, 
0.12986581027507782, 
0.851865291595459, 
0.2082953155040741, 
-0.1050473228096962, 
-0.23491504788398743, 
0.13639047741889954, 
-0.3497518002986908, 
-0.3554971218109131, 
-0.317084938287735, 
-0.8266046047210693, 
-0.03870014101266861, 
-0.014106571674346924, 
-0.24400664865970612, 
0.01623420976102352, 
-0.2819702625274658, 
-0.2437163144350052, 
0.18538178503513336, 
-0.5197539329528809, 
-0.26336997747421265, 
-0.3442412316799164, 
-0.5465295314788818, 
-0.46236705780029297, 
-0.9867584109306335, 
-0.2104179710149765, 
-0.27362754940986633, 
-1.276053547859192, 
0.17235323786735535, 
0.3631075322628021, 
0.1358775943517685, 
-0.06950226426124573, 
-0.043814316391944885, 
0.23662489652633667, 
-0.0023916608188301325, 
0.2311885803937912, 
0.11235737055540085, 
0.09131047129631042, 
0.4774662256240845, 
0.5431890487670898, 
0.3453359305858612, 
-0.2567923665046692, 
0.17508625984191895, 
0.47092941403388977, 
-0.2404458075761795 
}

double b3[8] = { 
-0.20019787549972534, 
-0.7032891511917114, 
0.015686558559536934, 
0.20850683748722076, 
0.15307581424713135, 
0.33038365840911865, 
-0.48121845722198486, 
0.6994732022285461 
}

double w5[2880] = { 
0.019410166889429092, 
0.06998471170663834, 
-0.031635724008083344, 
0.09750663489103317, 
0.07806482911109924, 
-0.1352718025445938, 
0.12256189435720444, 
0.020116694271564484, 
-0.005477296654134989, 
0.06513048708438873, 
0.15020932257175446, 
-0.08616554737091064, 
-0.13474510610103607, 
-0.05517757311463356, 
0.032272931188344955, 
-0.030801068991422653, 
0.017171233892440796, 
0.10982692986726761, 
-0.12927938997745514, 
-0.006916664075106382, 
-0.028790608048439026, 
-0.06726881861686707, 
-0.11810840666294098, 
-0.027957342565059662, 
0.12481091916561127, 
0.010696330107748508, 
0.12618619203567505, 
0.09206411987543106, 
0.07171342521905899, 
-0.00538847129791975, 
0.025383537635207176, 
0.055328015238046646, 
-0.06962770223617554, 
0.02492089942097664, 
0.044592101126909256, 
0.0667448341846466, 
-0.10371416062116623, 
0.14813672006130219, 
0.06286301463842392, 
-0.025326618924736977, 
0.015207964926958084, 
0.1769234538078308, 
-0.03087872453033924, 
-0.05617448315024376, 
0.12376552075147629, 
-0.08424622565507889, 
-0.0950969010591507, 
-0.06879930943250656, 
0.0541023388504982, 
0.07147074490785599, 
-0.08801779896020889, 
-0.024707166478037834, 
0.027189521118998528, 
0.11164813488721848, 
0.12307371944189072, 
0.06757563352584839, 
0.03741572052240372, 
0.09588206559419632, 
-0.07727766036987305, 
-0.023057399317622185, 
0.06595707684755325, 
0.055761709809303284, 
-0.136026069521904, 
-0.04604903236031532, 
-0.13121256232261658, 
0.11581442505121231, 
0.06501571834087372, 
-0.03513013944029808, 
0.021382031962275505, 
0.20734438300132751, 
-0.02632940746843815, 
0.1987171769142151, 
0.031688034534454346, 
-0.08649231493473053, 
0.04460863769054413, 
0.03361833840608597, 
0.039614129811525345, 
0.11155888438224792, 
-0.03936217352747917, 
0.04665452986955643, 
0.06187896803021431, 
-0.12648001313209534, 
-0.13903529942035675, 
-0.21656717360019684, 
0.179036483168602, 
0.15588495135307312, 
-0.06720656156539917, 
0.05389055237174034, 
-0.10935961455106735, 
0.04288791865110397, 
0.15135981142520905, 
-0.24259573221206665, 
-0.24585065245628357, 
0.08219777792692184, 
0.18244101107120514, 
0.27024081349372864, 
-0.2527889609336853, 
-0.008371529169380665, 
0.1160866767168045, 
0.21826212108135223, 
0.059649135917425156, 
-0.09167669713497162, 
-0.08817873895168304, 
0.0270383358001709, 
0.04885226488113403, 
0.10415181517601013, 
-0.3688432276248932, 
0.2567969560623169, 
0.02309025637805462, 
0.003205968765541911, 
-0.03442898765206337, 
0.07392370700836182, 
0.11105617135763168, 
0.17552658915519714, 
-0.12821051478385925, 
-0.10578540712594986, 
-0.01000973116606474, 
0.08946754038333893, 
-0.10809127986431122, 
-0.10143937915563583, 
0.041892003268003464, 
0.012156307697296143, 
0.017905212938785553, 
-0.0068211802281439304, 
0.00751842837780714, 
-0.04984532669186592, 
-0.003627170342952013, 
0.027820032089948654, 
-0.09218012541532516, 
-0.037251152098178864, 
-0.05932018160820007, 
0.09410062432289124, 
-0.06912080198526382, 
0.19578291475772858, 
-0.14465686678886414, 
-0.13049036264419556, 
0.01605852320790291, 
0.1299009770154953, 
0.0017063867999240756, 
0.04580848291516304, 
0.16655504703521729, 
-0.07154704630374908, 
-0.1830405592918396, 
-0.10989857465028763, 
0.037807028740644455, 
0.23631085455417633, 
-0.24947376549243927, 
0.16698327660560608, 
0.08760426193475723, 
0.05437818542122841, 
0.02231651544570923, 
0.14710572361946106, 
-0.004212524741888046, 
-0.022627929225564003, 
0.025412051007151604, 
-0.018721161410212517, 
-0.10565056651830673, 
0.08582138270139694, 
-0.022887680679559708, 
0.024417590349912643, 
0.08234891295433044, 
4.238916517351754e-05, 
-0.19534841179847717, 
0.056904278695583344, 
0.3194097876548767, 
-0.09180857241153717, 
-0.024312227964401245, 
-0.24722206592559814, 
0.04331046715378761, 
-0.016517821699380875, 
0.12441825121641159, 
0.017898153513669968, 
-0.1467641144990921, 
0.14469599723815918, 
0.1492641419172287, 
-0.162972554564476, 
0.22561895847320557, 
-0.3372734785079956, 
0.04447195678949356, 
-0.09627069532871246, 
-0.023242922499775887, 
-0.13552656769752502, 
0.019548526033759117, 
0.10292031615972519, 
-0.08109056949615479, 
0.009807738475501537, 
-0.11847859621047974, 
0.02973206527531147, 
0.007719922345131636, 
0.00977815967053175, 
-0.0940038189291954, 
-0.03016827255487442, 
0.11098842322826385, 
0.0825100839138031, 
-0.05506081134080887, 
-0.02177353762090206, 
0.040836650878190994, 
0.12427887320518494, 
-0.13684959709644318, 
0.07217036932706833, 
-0.05164815112948418, 
0.15283042192459106, 
0.06896095722913742, 
-0.003327366430312395, 
0.1640758067369461, 
0.0176839679479599, 
0.10988643765449524, 
-0.04268793761730194, 
-0.17037725448608398, 
-0.09186846762895584, 
-0.11427843570709229, 
0.029293937608599663, 
-0.22820697724819183, 
0.26708948612213135, 
-0.1313316375017166, 
-0.2915761470794678, 
-0.13974609971046448, 
0.0509510263800621, 
0.10870913416147232, 
0.2305953949689865, 
0.10182920843362808, 
-0.07875639945268631, 
-0.0052201710641384125, 
0.11070001870393753, 
0.022791067138314247, 
0.013892999850213528, 
0.06513664871454239, 
-0.11096600443124771, 
0.14421239495277405, 
0.0659613087773323, 
-0.09214335680007935, 
0.2060501128435135, 
0.02505156770348549, 
-0.07196711003780365, 
-0.0013865591026842594, 
-0.15501606464385986, 
0.06219107285141945, 
0.013779706321656704, 
-0.09755194932222366, 
-0.08194632828235626, 
0.03787364810705185, 
0.12599344551563263, 
0.13596759736537933, 
0.14052803814411163, 
0.18488876521587372, 
-0.19098952412605286, 
0.35085222125053406, 
-0.3999493420124054, 
0.047279465943574905, 
-0.03563975542783737, 
0.1591518223285675, 
-0.13685539364814758, 
-0.07156335562467575, 
0.17330674827098846, 
-0.236432746052742, 
-0.13440074026584625, 
-0.03453206270933151, 
-0.22662724554538727, 
0.2788839340209961, 
0.16783350706100464, 
-0.05654743313789368, 
-0.13461631536483765, 
-0.07116127759218216, 
0.007863260805606842, 
-0.06083868443965912, 
0.002536287298426032, 
0.04939604178071022, 
-0.07976684719324112, 
-0.02403273992240429, 
-0.033306222409009933, 
-0.14672237634658813, 
0.0682666152715683, 
0.06028669700026512, 
-0.13565000891685486, 
-0.052004121243953705, 
0.007841712795197964, 
-0.04633065685629845, 
0.08264808356761932, 
-0.0847838968038559, 
0.06258518993854523, 
-0.05591505020856857, 
0.05606216937303543, 
-0.027318987995386124, 
-0.10892418026924133, 
0.030945967882871628, 
-0.05220959708094597, 
0.16939115524291992, 
-0.12651655077934265, 
-0.025284435600042343, 
-0.08064885437488556, 
0.023443670943379402, 
0.06911647319793701, 
-0.09109895676374435, 
-0.00605812156572938, 
-0.07832053303718567, 
0.3080015778541565, 
0.10838856548070908, 
-0.13249550759792328, 
-0.016228627413511276, 
0.02335859276354313, 
-0.04905552417039871, 
-0.03999417647719383, 
-0.04595651105046272, 
0.06390020251274109, 
-0.12331494688987732, 
0.013934021815657616, 
0.1014474630355835, 
-0.1811867207288742, 
0.07061570137739182, 
0.02183040790259838, 
-0.04053177684545517, 
0.24901098012924194, 
0.05664706230163574, 
-0.09207013994455338, 
0.09140321612358093, 
-0.026054833084344864, 
0.059282634407281876, 
0.0793803259730339, 
-0.10610613971948624, 
-0.029213426634669304, 
-0.11881418526172638, 
0.007241277024149895, 
-0.09776727855205536, 
0.11186996102333069, 
-0.17897942662239075, 
0.15496386587619781, 
-0.05246840789914131, 
0.000980043550953269, 
0.09391319006681442, 
0.19458363950252533, 
0.17408230900764465, 
-0.08989975601434708, 
-0.08505108207464218, 
0.03405412286520004, 
-0.07955121248960495, 
0.08422873169183731, 
-0.11711902916431427, 
0.05504360422492027, 
0.020672239363193512, 
0.03780238702893257, 
0.11666706204414368, 
0.0059136636555194855, 
-0.04747375100851059, 
0.10066027194261551, 
-0.2338159829378128, 
0.16440172493457794, 
-0.07310564070940018, 
0.09722045809030533, 
0.1328727900981903, 
0.16653403639793396, 
-0.01594289392232895, 
0.17993751168251038, 
0.09815674275159836, 
-0.029572613537311554, 
0.09245245903730392, 
0.00018194869335275143, 
-0.062415964901447296, 
-0.03924904391169548, 
0.03220546618103981, 
-0.12385160475969315, 
-0.13743487000465393, 
0.0730099231004715, 
0.08911833167076111, 
-0.025238020345568657, 
-0.06141621991991997, 
0.024559587240219116, 
0.14668458700180054, 
-0.07632938027381897, 
0.04967126250267029, 
-0.0716826319694519, 
-0.016325805336236954, 
0.10135956853628159, 
-0.04930907487869263, 
-0.22029486298561096, 
-0.016300218179821968, 
0.3949081301689148, 
0.06334559619426727, 
-0.02286907099187374, 
-0.17343413829803467, 
0.0251472145318985, 
0.04947793111205101, 
-0.022387370467185974, 
-0.1428132802248001, 
0.04023251309990883, 
-0.08302389830350876, 
0.10335349291563034, 
-0.13113939762115479, 
0.0038316978607326746, 
0.08383559435606003, 
0.08891305327415466, 
-0.09501295536756516, 
0.12565629184246063, 
0.008924361318349838, 
-0.10414702445268631, 
0.009097921662032604, 
-0.001173510798253119, 
-0.018156442791223526, 
0.07407442480325699, 
-0.07175866514444351, 
-0.02283172681927681, 
0.039126235991716385, 
0.10520640015602112, 
0.05252256616950035, 
-0.13696832954883575, 
-0.06662661582231522, 
0.003552449634298682, 
0.050473399460315704, 
0.07840872555971146, 
-0.02998368814587593, 
0.0882778912782669, 
0.07689474523067474, 
0.10373791307210922, 
-0.038302935659885406, 
0.0339251346886158, 
-0.06422055512666702, 
0.08278924226760864, 
0.04922369122505188, 
0.023570548743009567, 
0.13988684117794037, 
0.013847580179572105, 
0.08451657742261887, 
-0.15090005099773407, 
0.04642082378268242, 
0.06578092277050018, 
0.03641748055815697, 
-0.19009573757648468, 
-0.14838846027851105, 
0.2100571095943451, 
-0.09946504235267639, 
0.06474225968122482, 
0.03239273279905319, 
0.14933815598487854, 
-0.0022101846989244223, 
-0.03296199440956116, 
-0.11948584020137787, 
-0.07301966845989227, 
-0.05349750816822052, 
-0.08504251390695572, 
-0.1280849128961563, 
0.11786037683486938, 
-0.06413336098194122, 
-0.03275882452726364, 
-0.08374711126089096, 
-0.0888085886836052, 
0.1143295094370842, 
0.104603610932827, 
0.08913565427064896, 
0.16248144209384918, 
0.05568065121769905, 
-0.10793711990118027, 
-0.10609244555234909, 
0.04241067171096802, 
-0.1275237500667572, 
0.13312485814094543, 
-0.0790577307343483, 
-0.049679383635520935, 
-0.061893265694379807, 
-0.061946235597133636, 
0.1323436200618744, 
0.07750862836837769, 
0.021853096783161163, 
0.007516870275139809, 
-0.14673516154289246, 
0.018342027440667152, 
-0.03137381374835968, 
0.07237561792135239, 
-0.025231067091226578, 
0.13391773402690887, 
-0.0017924837302416563, 
-0.09834315627813339, 
-0.08329635858535767, 
0.11879794299602509, 
-0.00019495162996463478, 
-0.12889382243156433, 
-0.04886320233345032, 
-0.04593254625797272, 
-0.01551370695233345, 
0.007290634326636791, 
-0.103622205555439, 
-0.07134825736284256, 
-0.0690300315618515, 
0.007106743287295103, 
-0.0594291016459465, 
0.09488222002983093, 
-0.028259748592972755, 
0.11389780789613724, 
0.07949834316968918, 
0.05262633413076401, 
-0.01842929609119892, 
0.22877392172813416, 
0.11059607565402985, 
0.033757708966732025, 
-0.023505685850977898, 
-0.17248407006263733, 
-0.08179912716150284, 
0.09660619497299194, 
-0.10256262868642807, 
-0.06882239878177643, 
0.0010344942566007376, 
0.2701937258243561, 
0.04978010803461075, 
0.010160998441278934, 
0.024068154394626617, 
0.09564350545406342, 
-0.038193438202142715, 
0.06271263211965561, 
0.07646118104457855, 
0.019835829734802246, 
-0.07951831072568893, 
0.08076075464487076, 
-0.07857570052146912, 
-0.03568181395530701, 
-0.08263278752565384, 
-0.006326048634946346, 
-0.1278775930404663, 
0.06183749809861183, 
0.042579714208841324, 
0.04486338049173355, 
0.010372896678745747, 
-0.04871530085802078, 
0.08232313394546509, 
0.04243971034884453, 
0.007380916737020016, 
0.04560749605298042, 
-0.07626962661743164, 
0.018910856917500496, 
-0.09303591400384903, 
0.09034522622823715, 
0.04857099428772926, 
-0.06626051664352417, 
0.013501872308552265, 
-0.04958624392747879, 
0.07009861618280411, 
0.010027208365499973, 
-0.1055479496717453, 
-0.06852637976408005, 
0.05878918245434761, 
0.09267836809158325, 
0.045332133769989014, 
-0.0008116623503156006, 
0.17983411252498627, 
-0.0046749780885875225, 
0.09364844858646393, 
-0.14387920498847961, 
-0.01587776653468609, 
0.06452421844005585, 
0.06011534109711647, 
-0.023296929895877838, 
0.07570642232894897, 
0.4455026388168335, 
0.006921524181962013, 
0.1537587195634842, 
-0.02499733678996563, 
-0.14857397973537445, 
-0.04428549110889435, 
-0.07059185951948166, 
-0.04351053759455681, 
0.09046882390975952, 
-0.0795450210571289, 
-0.0011916852090507746, 
0.17145922780036926, 
-0.11472691595554352, 
-0.16776016354560852, 
-0.4551333785057068, 
0.10214120149612427, 
0.10440120100975037, 
-0.2812013328075409, 
-0.084157794713974, 
0.1458512395620346, 
0.17474479973316193, 
0.1362694948911667, 
-0.009998127818107605, 
-0.10432073473930359, 
-0.1838672012090683, 
0.2576909065246582, 
0.24117372930049896, 
-0.31655511260032654, 
0.11460137367248535, 
0.20588934421539307, 
0.14428065717220306, 
-0.0293657835572958, 
-0.14274302124977112, 
0.03761890158057213, 
0.054070670157670975, 
-0.17312490940093994, 
0.02342294529080391, 
-0.2747986912727356, 
0.4072347581386566, 
0.03568139672279358, 
0.08588403463363647, 
-0.204289510846138, 
0.012660062871873379, 
0.18301990628242493, 
0.35978397727012634, 
-0.1632179319858551, 
0.09734901785850525, 
-0.1536932736635208, 
0.2569951117038727, 
0.021824344992637634, 
-0.11763046681880951, 
0.023805810138583183, 
0.07893454283475876, 
-0.006064003333449364, 
-0.028987299650907516, 
0.06904394179582596, 
0.055218636989593506, 
-0.045840807259082794, 
0.06435760855674744, 
-0.09361298382282257, 
-0.10291139781475067, 
-0.08535663783550262, 
-0.3027551770210266, 
0.27221962809562683, 
0.34661781787872314, 
-0.4872388243675232, 
-0.11138316988945007, 
-0.47449731826782227, 
0.5628654956817627, 
-0.1113627552986145, 
0.01659051515161991, 
0.14762312173843384, 
-0.05774034932255745, 
-0.12184149026870728, 
-0.19533208012580872, 
0.08102041482925415, 
0.08383653312921524, 
-0.11207976937294006, 
0.14317487180233002, 
0.1503068208694458, 
0.19260671734809875, 
0.00876186415553093, 
0.10187157988548279, 
0.04053919389843941, 
0.00811154954135418, 
-0.017652906477451324, 
-0.08769680559635162, 
0.019627457484602928, 
0.0651799738407135, 
-0.0442206896841526, 
0.012726141139864922, 
0.005276688374578953, 
0.07564181089401245, 
-0.14647749066352844, 
-0.42996540665626526, 
0.3359489440917969, 
-0.018351245671510696, 
0.06079676374793053, 
-0.46728265285491943, 
0.09229022264480591, 
0.1358880251646042, 
-0.027928071096539497, 
-0.09725987911224365, 
-0.09371699392795563, 
0.06175675243139267, 
0.0029193039517849684, 
-0.02395913004875183, 
-0.2381945550441742, 
-0.19251804053783417, 
0.11623523384332657, 
0.01857224479317665, 
-0.06642267107963562, 
-0.2978755831718445, 
0.00788639672100544, 
0.07957230508327484, 
-0.11709455400705338, 
0.008929791860282421, 
-0.12636777758598328, 
0.12209215760231018, 
0.017244547605514526, 
0.07393067330121994, 
0.05041739344596863, 
0.21297875046730042, 
0.17384205758571625, 
0.2548217475414276, 
-0.07956201583147049, 
-0.13880346715450287, 
-0.2789204716682434, 
0.19188232719898224, 
-0.05737725645303726, 
-0.03946278989315033, 
-0.007159902714192867, 
0.16849371790885925, 
-0.016945116221904755, 
-0.10877545922994614, 
0.36701419949531555, 
-0.08431593328714371, 
-0.06588904559612274, 
-0.12379515171051025, 
-0.1619456708431244, 
-0.014016472734510899, 
0.11258714646100998, 
-0.4492398798465729, 
0.18982918560504913, 
0.2686711251735687, 
-0.6802417039871216, 
0.11231455951929092, 
0.06925474852323532, 
0.19787123799324036, 
0.025337202474474907, 
0.1668628305196762, 
0.021226977929472923, 
-0.1510961949825287, 
-0.032772842794656754, 
-0.055578652769327164, 
-0.012263194657862186, 
0.039160799235105515, 
0.025130243971943855, 
-0.09163163602352142, 
0.06423124670982361, 
0.03090132586658001, 
0.08245270699262619, 
0.2751123309135437, 
0.0434921532869339, 
0.07429788261651993, 
0.05719105526804924, 
-0.28161704540252686, 
0.24661822617053986, 
-0.039237041026353836, 
-0.09483227878808975, 
0.016528168693184853, 
0.0276641845703125, 
0.041436780244112015, 
-0.00877372082322836, 
0.06121700629591942, 
0.11328303068876266, 
-0.15515056252479553, 
0.1275320053100586, 
-0.3628305196762085, 
0.05744575336575508, 
0.004004042129963636, 
0.1153259128332138, 
-0.21528342366218567, 
-0.03596813604235649, 
0.07742096483707428, 
-0.10211211442947388, 
-0.11162466555833817, 
-0.277010977268219, 
-0.07886174321174622, 
0.2214360237121582, 
0.13360704481601715, 
0.07058358192443848, 
-0.1386703997850418, 
0.011054097674787045, 
0.023298580199480057, 
-0.04530513286590576, 
0.13365721702575684, 
0.08264510333538055, 
0.07177431881427765, 
0.0607907734811306, 
0.02482914738357067, 
0.5324229598045349, 
0.05668754503130913, 
0.2540169060230255, 
-0.2060670107603073, 
-0.06697703152894974, 
0.06635339558124542, 
-0.17904728651046753, 
0.020208576694130898, 
-0.2877803146839142, 
-0.060551054775714874, 
0.05531010031700134, 
0.22017578780651093, 
0.07947413623332977, 
0.10076117515563965, 
0.04083741083741188, 
-0.10157199203968048, 
0.03486042469739914, 
-0.16182875633239746, 
0.04203332960605621, 
0.03440282866358757, 
0.05863433703780174, 
-0.43724897503852844, 
0.03341491147875786, 
0.135027676820755, 
-0.7217743992805481, 
0.34865236282348633, 
0.5303133130073547, 
0.023295029997825623, 
0.007428323850035667, 
0.10156471282243729, 
-0.02222568169236183, 
-0.14780476689338684, 
-0.10055916756391525, 
0.09471513330936432, 
0.01462116651237011, 
0.003177739679813385, 
0.058152731508016586, 
-0.04242953658103943, 
0.11037811636924744, 
0.0341007336974144, 
-0.09281060844659805, 
0.2940397560596466, 
0.08216500282287598, 
-0.1381559818983078, 
0.04314395412802696, 
-0.12240805476903915, 
0.2593967318534851, 
0.049328990280628204, 
-0.4376303255558014, 
-0.15330001711845398, 
0.106584832072258, 
0.03179832920432091, 
-0.05806446075439453, 
0.04425295069813728, 
-0.024471847340464592, 
-0.13379479944705963, 
-0.24013520777225494, 
0.014636851847171783, 
0.15849414467811584, 
0.09297627210617065, 
0.28471001982688904, 
0.12657184898853302, 
-0.02856912463903427, 
0.09110700339078903, 
-0.170654758810997, 
-0.17300520837306976, 
-0.36170950531959534, 
0.10589361190795898, 
0.14106841385364532, 
0.30236175656318665, 
0.03399934992194176, 
-0.015995465219020844, 
-0.09940474480390549, 
-0.03637826815247536, 
0.010170986875891685, 
0.21754190325737, 
-0.3406941890716553, 
0.09381592273712158, 
0.08781371265649796, 
0.057533785700798035, 
-0.05523860827088356, 
0.1127733439207077, 
0.1705886274576187, 
-0.16508294641971588, 
-0.031158916652202606, 
-0.00988555047661066, 
-0.013820833526551723, 
0.007532105781137943, 
-0.18164637684822083, 
-0.11617480963468552, 
-0.07970479130744934, 
0.04559605196118355, 
-0.0024384206626564264, 
0.035700682550668716, 
-0.060435570776462555, 
-0.04257139191031456, 
-0.0036675818264484406, 
0.031208962202072144, 
-0.006875419523566961, 
-0.10223595798015594, 
-0.02140791155397892, 
-0.1520651876926422, 
-0.40225645899772644, 
-0.1430569887161255, 
-0.23431599140167236, 
0.7061936855316162, 
-0.004853192716836929, 
0.2562006711959839, 
-0.005599960684776306, 
0.05592682957649231, 
0.09964881092309952, 
0.06137638911604881, 
-0.09794369339942932, 
0.10323699563741684, 
-0.01086025033146143, 
-0.22420255839824677, 
-0.45755335688591003, 
0.1446075290441513, 
0.2603815495967865, 
0.17296676337718964, 
-0.14144672453403473, 
0.166897252202034, 
0.07452207058668137, 
-0.16278108954429626, 
0.005099991802126169, 
0.11299613863229752, 
0.058448951691389084, 
0.12232445180416107, 
-0.10669149458408356, 
-0.047296375036239624, 
0.2339274287223816, 
-0.10967085510492325, 
-0.13717596232891083, 
0.026676423847675323, 
0.021387875080108643, 
-0.3425661027431488, 
-0.15650838613510132, 
0.24625883996486664, 
-0.001197049510665238, 
0.13823801279067993, 
-0.027493974193930626, 
-0.08659032732248306, 
0.0012062671594321728, 
-0.037305790930986404, 
-0.09094417095184326, 
-0.05577639490365982, 
0.005877381656318903, 
0.20405584573745728, 
-0.09690597653388977, 
0.11833969503641129, 
0.1842738538980484, 
0.01691334880888462, 
-0.1270621120929718, 
-0.03631372004747391, 
-0.13736148178577423, 
-0.21134017407894135, 
-0.11121874302625656, 
0.08620424568653107, 
-0.04555313661694527, 
0.1748029738664627, 
-0.13616874814033508, 
0.1292581558227539, 
0.020713550969958305, 
-0.0005533802905119956, 
-0.044558241963386536, 
-0.09883495420217514, 
-0.11578620225191116, 
0.06616957485675812, 
0.0740695670247078, 
0.05095318332314491, 
0.0057725124061107635, 
0.15073250234127045, 
0.08825002610683441, 
-0.05756230652332306, 
0.054861027747392654, 
-0.10795880854129791, 
-0.04219724237918854, 
0.14855557680130005, 
-0.004954227712005377, 
0.10792586952447891, 
0.08683127909898758, 
0.11779466271400452, 
0.0715741440653801, 
0.051782626658678055, 
0.004611436743289232, 
-0.06532615423202515, 
0.044461458921432495, 
-0.005237742327153683, 
0.057921476662158966, 
0.08130041509866714, 
0.11231271177530289, 
-0.1227998211979866, 
-0.06638381630182266, 
-0.0021150540560483932, 
-0.14385508000850677, 
-0.30103448033332825, 
-0.1189073696732521, 
0.2117011547088623, 
-0.21100357174873352, 
0.0835786908864975, 
-0.06683216243982315, 
0.1470119208097458, 
0.014569644816219807, 
-0.08283556997776031, 
0.017657164484262466, 
-0.007430087774991989, 
-0.01777433417737484, 
0.045807335525751114, 
-0.0760468989610672, 
0.0034800635185092688, 
0.09528817981481552, 
-0.05638730898499489, 
0.0675419494509697, 
0.024175921455025673, 
0.04842014238238335, 
-0.052811574190855026, 
0.042930200695991516, 
-0.07073040306568146, 
0.02506047487258911, 
0.2622133791446686, 
0.20085634291172028, 
0.009164301678538322, 
-0.10649662464857101, 
-0.29340431094169617, 
0.016098318621516228, 
0.004362581763416529, 
-0.010828396305441856, 
-0.1599036008119583, 
0.08632742613554001, 
0.357278048992157, 
0.0705568939447403, 
-0.01658782921731472, 
-0.06420642882585526, 
-0.1505884975194931, 
0.02832682617008686, 
-0.05081348121166229, 
0.17520208656787872, 
0.01975722797214985, 
0.09983967244625092, 
0.1319127231836319, 
-0.011664937250316143, 
-0.014684313908219337, 
-0.023811135441064835, 
-0.10264156013727188, 
0.04414953291416168, 
0.09867377579212189, 
-0.08139639347791672, 
0.01902669668197632, 
-0.012060616165399551, 
0.026189245283603668, 
0.12052013725042343, 
0.13842681050300598, 
-0.06636391580104828, 
0.014906618744134903, 
0.05948127061128616, 
0.04133228957653046, 
-0.020444819703698158, 
0.06547680497169495, 
-0.015637299045920372, 
-0.036201320588588715, 
-0.0017313931602984667, 
-0.14296084642410278, 
0.0029774787835776806, 
-0.13004878163337708, 
0.02197274938225746, 
-0.01225975900888443, 
-0.06482656300067902, 
0.030597971752285957, 
0.10964169353246689, 
0.32774075865745544, 
0.06664467602968216, 
-0.0959765687584877, 
-0.12981253862380981, 
-0.25411349534988403, 
-0.1773853302001953, 
0.02680029347538948, 
-0.0763087123632431, 
-0.21410174667835236, 
-0.08005030453205109, 
0.34581631422042847, 
-0.0863981693983078, 
0.13150028884410858, 
-0.04206201806664467, 
-0.1463479995727539, 
0.032886773347854614, 
-0.06536205112934113, 
0.0014935755170881748, 
0.03636933118104935, 
-0.08647909760475159, 
-0.06230175867676735, 
0.39313721656799316, 
0.0002917858655564487, 
-0.12041057646274567, 
-0.37485671043395996, 
0.06700155138969421, 
-0.05254264920949936, 
0.07579730451107025, 
-0.2040225714445114, 
0.08719303458929062, 
0.3121805489063263, 
0.19144845008850098, 
-0.07738368958234787, 
-0.3896710276603699, 
-0.3303118050098419, 
0.16677935421466827, 
0.061683621257543564, 
-0.023001305758953094, 
-0.011891422793269157, 
0.18391942977905273, 
0.255660742521286, 
-0.01553758792579174, 
-0.1129133477807045, 
0.07068169116973877, 
0.3746109902858734, 
-0.12776687741279602, 
-0.13596931099891663, 
-0.058469634503126144, 
0.4047781527042389, 
-0.039256948977708817, 
0.08890508115291595, 
-0.0720263123512268, 
-0.004476470407098532, 
0.15651178359985352, 
0.13154904544353485, 
-0.11270076781511307, 
0.1396845132112503, 
-0.32845309376716614, 
0.1413702368736267, 
0.2853226959705353, 
0.29400816559791565, 
0.118892140686512, 
0.13878177106380463, 
0.005546229891479015, 
0.03330211713910103, 
-0.07905478775501251, 
-0.0031140055507421494, 
0.12111714482307434, 
0.09941519051790237, 
-0.08000482618808746, 
0.010199898853898048, 
-0.20579007267951965, 
-0.29459869861602783, 
0.18113772571086884, 
0.30110055208206177, 
-0.07145910710096359, 
0.14039358496665955, 
-0.37570440769195557, 
0.3181201219558716, 
0.07077810913324356, 
0.23965157568454742, 
0.23562900722026825, 
-0.05233706161379814, 
-0.27223894000053406, 
-0.4014464318752289, 
0.2586008906364441, 
0.0700124055147171, 
0.07364287972450256, 
-0.1646030992269516, 
0.15121318399906158, 
0.2102610468864441, 
-0.03352368623018265, 
0.06942643225193024, 
0.11065870523452759, 
0.15552793443202972, 
0.07979429513216019, 
-0.11509427428245544, 
0.08600995689630508, 
0.2740825414657593, 
-0.09072932600975037, 
-0.0722150206565857, 
0.23641543090343475, 
0.05897735804319382, 
-0.08312270045280457, 
-0.6080753207206726, 
0.192143514752388, 
0.12324578315019608, 
0.0534183643758297, 
-0.4827605187892914, 
0.09958160668611526, 
0.21839982271194458, 
-0.0012834883527830243, 
-0.09705530107021332, 
-0.1581246554851532, 
-0.04014201834797859, 
0.07255179435014725, 
-0.04459618777036667, 
-0.11436014622449875, 
-0.23876385390758514, 
0.1999112367630005, 
0.14869046211242676, 
-0.17446251213550568, 
-0.3546146750450134, 
0.07563362270593643, 
0.3010905981063843, 
-0.1656024307012558, 
0.1176440566778183, 
0.04089534282684326, 
0.1763637661933899, 
0.013090375810861588, 
0.11274215579032898, 
0.14040625095367432, 
0.19892095029354095, 
0.10801999270915985, 
0.04414507746696472, 
-0.3158585727214813, 
0.1115049421787262, 
-0.2779932916164398, 
-0.07347506284713745, 
-0.028913967311382294, 
0.12207597494125366, 
0.17915453016757965, 
0.10463420301675797, 
-0.013753010891377926, 
-0.1931118667125702, 
0.25799012184143066, 
0.021163005381822586, 
0.024358542636036873, 
0.08543865382671356, 
-0.430428147315979, 
-0.03691926226019859, 
0.07155090570449829, 
-0.40402501821517944, 
0.19131705164909363, 
0.19494982063770294, 
-0.2729285955429077, 
0.19360704720020294, 
-0.014566722325980663, 
0.18424993753433228, 
-0.02120765671133995, 
0.1817791610956192, 
-0.031189316883683205, 
-0.10952933877706528, 
-0.12998424470424652, 
0.04940463602542877, 
0.09380871057510376, 
-0.02170906960964203, 
0.03498518839478493, 
-0.2614263594150543, 
0.09790884703397751, 
0.06931399554014206, 
0.03188307583332062, 
0.256375789642334, 
0.28775981068611145, 
0.25425267219543457, 
-0.5286865830421448, 
-0.3288707137107849, 
0.2886343002319336, 
0.24242247641086578, 
-0.5231119394302368, 
-0.2025722712278366, 
-0.016408124938607216, 
0.014386948198080063, 
0.06445135921239853, 
0.008463921025395393, 
0.1007874608039856, 
-0.11686687916517258, 
-0.027822313830256462, 
-0.09706061333417892, 
0.12106995284557343, 
0.09241525828838348, 
0.1047031506896019, 
-0.13759265840053558, 
-0.009072433225810528, 
0.02635253593325615, 
-0.046907197684049606, 
-0.054528288543224335, 
-0.2650768458843231, 
0.04394455999135971, 
0.13493333756923676, 
0.10802663117647171, 
-0.10253112018108368, 
-0.37827014923095703, 
0.08732898533344269, 
0.01634453982114792, 
0.014589216560125351, 
0.20862802863121033, 
0.20264631509780884, 
-0.02151956409215927, 
-0.08822541683912277, 
-0.07955694198608398, 
0.2990262806415558, 
0.2571658194065094, 
0.1538488119840622, 
-0.25402748584747314, 
0.11870257556438446, 
0.2072007805109024, 
-0.20369447767734528, 
-0.039638783782720566, 
-0.6071043014526367, 
0.06047186255455017, 
0.02432745322585106, 
0.14578169584274292, 
0.22339685261249542, 
-0.038672350347042084, 
-0.041441209614276886, 
0.12069793790578842, 
-0.056968700140714645, 
-0.02850809320807457, 
-0.0928620845079422, 
-0.004963467828929424, 
-0.03806036710739136, 
-0.5883240699768066, 
0.0008266683435067534, 
0.060106296092271805, 
-0.14300400018692017, 
0.2784179747104645, 
0.18292206525802612, 
0.103818878531456, 
-0.0038656764663755894, 
-0.06395673751831055, 
-0.12037971615791321, 
-0.06971793621778488, 
-0.014982840046286583, 
0.07866265624761581, 
0.12638531625270844, 
-0.11851391941308975, 
0.00584603613242507, 
0.01867280900478363, 
0.17317067086696625, 
0.10314751416444778, 
-0.0813755914568901, 
0.2748839855194092, 
0.2529059946537018, 
-0.16790547966957092, 
-0.2001800835132599, 
-0.056600458920001984, 
0.2768528461456299, 
0.1750199943780899, 
-0.6204022169113159, 
-0.25395992398262024, 
0.13150407373905182, 
-0.028599215671420097, 
0.04004915803670883, 
0.041664913296699524, 
0.10250499099493027, 
-0.08648744225502014, 
-0.12635526061058044, 
0.03442029282450676, 
0.09760019928216934, 
-0.016927532851696014, 
0.04230136796832085, 
-0.037751879543066025, 
-0.06230723857879639, 
-0.11407157778739929, 
0.16100458800792694, 
0.0031674006022512913, 
-0.12549525499343872, 
0.13692130148410797, 
-0.010351133532822132, 
0.0676608681678772, 
0.11784553527832031, 
-0.3103773593902588, 
-0.08079414069652557, 
-0.0711507573723793, 
0.16844530403614044, 
0.2261066436767578, 
0.26189470291137695, 
0.2698715925216675, 
0.12832199037075043, 
-0.5547940135002136, 
0.13175563514232635, 
0.10024014115333557, 
0.12476637214422226, 
-0.0763799175620079, 
-0.11405329406261444, 
0.07688453793525696, 
-0.0273965485394001, 
0.038647886365652084, 
-0.018779166042804718, 
0.014777015894651413, 
0.07305040955543518, 
0.0630209743976593, 
-0.05607316270470619, 
-0.016362477093935013, 
0.02052188850939274, 
-0.06736656278371811, 
-0.09963153302669525, 
0.07586420327425003, 
-0.06551114469766617, 
-0.18293160200119019, 
-0.04085142910480499, 
-0.16658470034599304, 
-0.11669564247131348, 
0.0017990079941228032, 
0.34033817052841187, 
0.17380742728710175, 
-0.10739537328481674, 
0.2588995099067688, 
0.22412095963954926, 
-0.49752742052078247, 
0.13711749017238617, 
-0.002880133455619216, 
-0.057926639914512634, 
0.03728306666016579, 
0.27206656336784363, 
-0.21491371095180511, 
-0.055682744830846786, 
0.11672035604715347, 
0.05676256865262985, 
-0.06389859318733215, 
-0.18575313687324524, 
0.12930704653263092, 
-0.014540624804794788, 
-0.11436086148023605, 
-0.02422833815217018, 
0.07062004506587982, 
0.053355637937784195, 
0.07895932346582413, 
-0.05136103928089142, 
-0.025020768865942955, 
0.29818204045295715, 
0.07617571949958801, 
0.04149353504180908, 
-0.01812724769115448, 
0.1500314474105835, 
-0.11062536388635635, 
0.03752892091870308, 
0.08094658702611923, 
-0.12325816601514816, 
-0.10121653228998184, 
0.34521639347076416, 
0.06974920630455017, 
-0.051520321518182755, 
0.08158893883228302, 
0.04507002979516983, 
-0.055796004831790924, 
0.19914405047893524, 
0.18797168135643005, 
-0.07043415307998657, 
0.04852989688515663, 
-0.03205128014087677, 
-0.1959356814622879, 
-0.0999283716082573, 
-0.04806041345000267, 
0.21214894950389862, 
0.03817436844110489, 
0.2818619906902313, 
-0.21345457434654236, 
-0.09443723410367966, 
-0.17600107192993164, 
-0.0380634181201458, 
0.03888959810137749, 
0.0516682043671608, 
-0.14178258180618286, 
0.05994710326194763, 
0.029801324009895325, 
0.004237648099660873, 
-0.09492653608322144, 
-0.14993110299110413, 
0.013177502900362015, 
-0.009298502467572689, 
0.09244900196790695, 
-0.05306117609143257, 
0.008534952998161316, 
-0.019625568762421608, 
-0.0601545013487339, 
0.14012488722801208, 
0.10373178869485855, 
-0.05207488313317299, 
0.034668102860450745, 
-0.07257035374641418, 
-0.06571492552757263, 
0.005177741404622793, 
0.06559522449970245, 
0.2075422704219818, 
-0.23161989450454712, 
0.115427166223526, 
0.16004081070423126, 
0.07927359640598297, 
-0.1490631401538849, 
0.15813829004764557, 
-0.08366796374320984, 
-0.20230668783187866, 
-0.02575441263616085, 
0.10315338522195816, 
-0.04034925252199173, 
0.02043108455836773, 
-0.014820647425949574, 
-0.23105594515800476, 
-0.16658543050289154, 
-0.15771687030792236, 
0.11163659393787384, 
-0.005533164832741022, 
-0.10838274657726288, 
-0.01285723876208067, 
-0.038283005356788635, 
-0.02734396792948246, 
0.03472157195210457, 
-0.09717784821987152, 
-0.04319111257791519, 
0.14354939758777618, 
-0.07447654753923416, 
-0.11459247022867203, 
0.005350490566343069, 
-0.023529643192887306, 
-0.006797265261411667, 
-0.001995706232264638, 
0.08247591555118561, 
-0.016915496438741684, 
-0.03700180724263191, 
0.0876944288611412, 
-0.10247119516134262, 
-0.09238048642873764, 
-0.18366298079490662, 
0.2024676501750946, 
-0.28268861770629883, 
0.09189045429229736, 
-0.16614845395088196, 
0.12751954793930054, 
0.2633933424949646, 
-0.12106377631425858, 
0.013837361708283424, 
0.072378970682621, 
0.05000787600874901, 
-0.0022124822717159986, 
0.015629980713129044, 
-0.041035786271095276, 
0.08447422832250595, 
0.03929043933749199, 
0.01739315502345562, 
0.0002168383216485381, 
0.02034604921936989, 
-0.029025034978985786, 
-0.08316865563392639, 
0.01646934263408184, 
0.10261782258749008, 
-0.005574914161115885, 
-0.13332752883434296, 
0.022897591814398766, 
0.08275767415761948, 
-0.013382300734519958, 
-0.017907725647091866, 
-0.0509650819003582, 
-0.15671145915985107, 
0.03703128546476364, 
-0.005835728254169226, 
0.023030368611216545, 
-0.08499184995889664, 
-0.11708606779575348, 
-0.03603712096810341, 
-0.306331068277359, 
-0.04931982606649399, 
-0.13530601561069489, 
-0.11135596036911011, 
0.13872464001178741, 
-0.05566203594207764, 
-0.01740686409175396, 
-0.14173680543899536, 
-0.09000828117132187, 
0.09021558612585068, 
0.05285772681236267, 
0.015238390304148197, 
-0.1914490908384323, 
-0.07878141105175018, 
0.12846629321575165, 
-0.20805689692497253, 
0.18514136970043182, 
-0.1508866250514984, 
0.0624593049287796, 
0.16053901612758636, 
-0.09913967549800873, 
0.10546897351741791, 
0.04475351423025131, 
-0.06959771364927292, 
0.0810924544930458, 
0.011986376717686653, 
-0.02716255374252796, 
0.04013137146830559, 
-0.054305851459503174, 
-0.006486788857728243, 
0.32862207293510437, 
-0.10224651545286179, 
-0.12622426450252533, 
-0.1696121096611023, 
0.30148646235466003, 
-0.3031215965747833, 
0.18738093972206116, 
-0.06967268884181976, 
0.07762277871370316, 
0.14282819628715515, 
0.1997934728860855, 
-0.06495390087366104, 
-0.28485816717147827, 
-0.18113450706005096, 
0.17253243923187256, 
-0.0612606517970562, 
0.18623921275138855, 
-0.35747766494750977, 
0.10857830196619034, 
0.19818449020385742, 
-0.1464444100856781, 
-0.06311055272817612, 
0.327687531709671, 
0.29391658306121826, 
-0.2635013461112976, 
0.510971188545227, 
-0.3798641264438629, 
-0.1350078135728836, 
0.06576336920261383, 
-0.18097983300685883, 
0.2852369248867035, 
-0.14918144047260284, 
-0.20127184689044952, 
0.2015378326177597, 
-0.09537894278764725, 
0.1329537183046341, 
-0.18847158551216125, 
-0.07877049595117569, 
-0.04363564774394035, 
0.12848886847496033, 
0.08956552296876907, 
-0.044270988553762436, 
0.03532863035798073, 
-0.06076135113835335, 
-0.10875426977872849, 
-0.06884227693080902, 
-0.09056410193443298, 
0.035371627658605576, 
-0.188689723610878, 
-0.02327439747750759, 
-0.039565883576869965, 
-0.28311893343925476, 
-0.09123113751411438, 
0.25121432542800903, 
0.12877891957759857, 
0.2711917459964752, 
-0.4462209939956665, 
-0.0352502278983593, 
0.030571291223168373, 
0.0950474739074707, 
0.07291900366544724, 
-0.14353351294994354, 
-0.08160577714443207, 
-0.29847246408462524, 
0.3013423979282379, 
-0.10744591802358627, 
0.06470994651317596, 
-0.340099036693573, 
0.043795712292194366, 
0.05499717965722084, 
-0.3082757592201233, 
0.17854124307632446, 
0.1737372875213623, 
0.11524831503629684, 
-0.13015218079090118, 
0.09329253435134888, 
-0.09142124652862549, 
0.13466984033584595, 
-0.05283905565738678, 
-0.09812106937170029, 
0.20514830946922302, 
0.11644413322210312, 
-0.2008754014968872, 
-0.39421775937080383, 
-0.006876084953546524, 
-0.27144449949264526, 
0.1985863596200943, 
-0.1073114350438118, 
0.16105982661247253, 
0.15304023027420044, 
0.05426657572388649, 
-0.016340035945177078, 
-0.1894916445016861, 
0.1039196327328682, 
0.13946223258972168, 
-0.09349018335342407, 
0.11219417303800583, 
-0.15273186564445496, 
0.2675519585609436, 
0.05630641430616379, 
-0.0030364266131073236, 
-0.32301732897758484, 
0.15205667912960052, 
0.28591713309288025, 
-0.4263570308685303, 
0.25874650478363037, 
0.052823953330516815, 
-0.18604834377765656, 
-0.1814621239900589, 
0.04636719450354576, 
0.040265604853630066, 
0.20233172178268433, 
-0.31193724274635315, 
0.29763099551200867, 
-0.17196454107761383, 
0.18244881927967072, 
-0.22385090589523315, 
-0.2304227501153946, 
-0.09388486295938492, 
0.213454008102417, 
0.1740897297859192, 
0.22157453000545502, 
0.13311944901943207, 
-0.16026002168655396, 
-0.1334608495235443, 
-0.10507809370756149, 
-0.04317284747958183, 
-0.01095676515251398, 
-0.15015153586864471, 
0.03321080654859543, 
-0.23649269342422485, 
-0.3064359724521637, 
-0.06794368475675583, 
0.2297031283378601, 
0.09972959756851196, 
0.17522141337394714, 
0.01939239911735058, 
-0.20837301015853882, 
-0.0035959731321781874, 
0.0813896432518959, 
-0.11457487940788269, 
-0.08821066468954086, 
0.010635368525981903, 
0.007811813149601221, 
0.07238032668828964, 
-0.04597447067499161, 
0.1177951768040657, 
-0.13001886010169983, 
0.1797194927930832, 
-0.0117897167801857, 
-0.14834070205688477, 
0.2223006635904312, 
0.3209858238697052, 
-0.09779806435108185, 
-0.22188854217529297, 
0.06419693678617477, 
-0.148661807179451, 
0.256867378950119, 
-0.38590556383132935, 
0.021219197660684586, 
-0.13303790986537933, 
0.03888706862926483, 
0.03870100528001785, 
-0.07237754017114639, 
0.00096236786339432, 
-0.1142793595790863, 
0.06632337719202042, 
0.06514789909124374, 
0.11025476455688477, 
-0.011076097376644611, 
-0.0886327475309372, 
-0.17458641529083252, 
-0.1978939026594162, 
0.04379662871360779, 
0.010169187560677528, 
-0.012827938422560692, 
-0.011181498877704144, 
-0.12782828509807587, 
0.0531642846763134, 
0.06048467755317688, 
0.019296351820230484, 
-0.3093148469924927, 
0.1470506191253662, 
0.11729884147644043, 
0.11552064120769501, 
0.2445063591003418, 
0.2138078659772873, 
-0.38852202892303467, 
0.026253176853060722, 
-0.2179459184408188, 
0.24047285318374634, 
0.2651748061180115, 
-0.2408972531557083, 
0.10428393632173538, 
-0.19801032543182373, 
0.11191006004810333, 
-0.3229488730430603, 
-0.02977980114519596, 
-0.21118871867656708, 
0.03348579257726669, 
-0.14661985635757446, 
0.16299301385879517, 
0.22610808908939362, 
-0.1758626252412796, 
-0.06820978969335556, 
-0.07089191675186157, 
0.037584077566862106, 
0.09621339291334152, 
-0.08777859061956406, 
0.13210824131965637, 
-0.0659010261297226, 
-0.4759851098060608, 
0.039954908192157745, 
0.04440271109342575, 
0.17205104231834412, 
0.08711612969636917, 
0.15072594583034515, 
0.021816885098814964, 
0.0347495973110199, 
0.023095667362213135, 
-0.025976968929171562, 
-0.11204851418733597, 
0.02344387024641037, 
-0.006352682132273912, 
0.0325356125831604, 
-0.0620783306658268, 
0.01027625985443592, 
0.007424147333949804, 
0.030039481818675995, 
-0.040873460471630096, 
0.1117718517780304, 
0.1848851591348648, 
0.3090115785598755, 
-0.2715795040130615, 
-0.12761683762073517, 
0.10876520723104477, 
0.12834219634532928, 
0.1946527510881424, 
-0.5208964347839355, 
-0.08158760517835617, 
0.08749359846115112, 
-0.07402289658784866, 
-0.02177996002137661, 
-0.023453833535313606, 
-0.01634025201201439, 
0.001472820877097547, 
0.028877021744847298, 
-0.03458689898252487, 
-0.009997925721108913, 
-0.030166061595082283, 
0.04745439067482948, 
-0.15741580724716187, 
-0.26359400153160095, 
0.04213187098503113, 
0.13866688311100006, 
0.08203140646219254, 
0.03293618559837341, 
0.007995828054845333, 
0.05484997481107712, 
-0.02478252910077572, 
-0.16411107778549194, 
-0.34547412395477295, 
0.21083588898181915, 
0.06814613193273544, 
0.4772947430610657, 
0.22994327545166016, 
0.2013794481754303, 
-0.367965966463089, 
0.2237616926431656, 
-0.5327264666557312, 
0.16705511510372162, 
0.12625707685947418, 
-0.057911358773708344, 
-0.06670453399419785, 
-0.04867847263813019, 
0.02215125784277916, 
0.10352133959531784, 
0.04382939636707306, 
-0.10597218573093414, 
-0.13093657791614532, 
0.004033318720757961, 
0.10393614321947098, 
0.0339314304292202, 
-0.02220838889479637, 
-0.0890076607465744, 
0.056469231843948364, 
-0.0257714856415987, 
0.0012947825016453862, 
-0.04300285875797272, 
0.0002824826806318015, 
0.16609495878219604, 
-0.16126000881195068, 
0.23880675435066223, 
-0.07563602179288864, 
0.47618457674980164, 
-0.021609704941511154, 
0.0599384568631649, 
0.05785701423883438, 
0.03999125212430954, 
-0.6004427075386047, 
0.10284905880689621, 
-0.11687898635864258, 
-0.04983946681022644, 
-0.07404515147209167, 
0.08538202941417694, 
-0.012832943350076675, 
0.057355787605047226, 
-0.019777663052082062, 
0.025321848690509796, 
-0.06359602510929108, 
0.09376402199268341, 
0.15843121707439423, 
0.16796870529651642, 
-0.032411158084869385, 
0.12536181509494781, 
0.037479959428310394, 
-0.07632306963205338, 
0.08748111873865128, 
-0.06039353460073471, 
-0.03147063031792641, 
0.20355701446533203, 
-0.05112242326140404, 
-0.12497283518314362, 
-0.11991207301616669, 
0.07370699197053909, 
0.007294920738786459, 
0.1559797078371048, 
-0.028638429939746857, 
0.11207280308008194, 
-0.08298488706350327, 
0.23236161470413208, 
-0.1973820924758911, 
-0.11724918335676193, 
-0.005090323742479086, 
0.1966700404882431, 
-0.13586796820163727, 
0.2946617901325226, 
5.743507790612057e-05, 
-0.0459757037460804, 
-0.04787290096282959, 
0.00904870219528675, 
0.09019414335489273, 
0.05330915376543999, 
-0.059364378452301025, 
0.12727133929729462, 
0.08976075053215027, 
0.0831487774848938, 
0.008435988798737526, 
0.134757399559021, 
-0.008305830880999565, 
0.01210160180926323, 
-0.0037642887327820063, 
0.09538304805755615, 
-0.16814330220222473, 
0.0030817475635558367, 
-0.05732789263129234, 
0.021143712103366852, 
0.009615978226065636, 
-0.12729379534721375, 
-0.06846524029970169, 
-0.06164553016424179, 
-0.049413155764341354, 
-0.03563711419701576, 
0.005452191922813654, 
-0.02104824036359787, 
-0.040722887963056564, 
0.044408462941646576, 
0.14186769723892212, 
-0.054105859249830246, 
-0.11132914572954178, 
-0.030512768775224686, 
-0.06137985736131668, 
0.06586357206106186, 
-0.01194385252892971, 
0.2093079835176468, 
-0.07755965739488602, 
-0.0799124538898468, 
-0.07711204141378403, 
0.06452690064907074, 
0.023407360538840294, 
0.3489573001861572, 
0.022150959819555283, 
-0.17894196510314941, 
0.06447664648294449, 
0.176047682762146, 
0.04632297158241272, 
0.1458376795053482, 
-0.2361205667257309, 
0.03012252040207386, 
-0.029041076079010963, 
-0.12490508705377579, 
0.19230112433433533, 
-0.00643872981891036, 
-0.11800006777048111, 
0.022621385753154755, 
-0.028846237808465958, 
-0.04374655336141586, 
0.03003052994608879, 
-0.09438035637140274, 
-0.04335618391633034, 
0.1947058141231537, 
0.02500380575656891, 
-0.05625501647591591, 
0.09763199836015701, 
-0.04706116020679474, 
-0.06148422509431839, 
0.08466291427612305, 
-0.13057982921600342, 
0.04015183821320534, 
-0.13363809883594513, 
0.23954036831855774, 
0.026280775666236877, 
-0.16677914559841156, 
-0.08503996580839157, 
0.1291082501411438, 
-0.21520134806632996, 
0.12389036267995834, 
-0.03768598288297653, 
0.18659040331840515, 
-0.12742821872234344, 
0.10864628851413727, 
0.028006775304675102, 
-0.14979997277259827, 
0.17121121287345886, 
0.052247554063797, 
0.0027382667176425457, 
-0.09442213922739029, 
-0.07582314312458038, 
-0.07785781472921371, 
0.06636618077754974, 
0.04119013249874115, 
0.04838741570711136, 
0.009327247738838196, 
-0.05360613018274307, 
0.1411914825439453, 
-0.03159609064459801, 
-0.06518936902284622, 
-0.07795287668704987, 
0.012582102790474892, 
-0.12128409743309021, 
0.08872179687023163, 
0.15837877988815308, 
-0.018191609531641006, 
-0.07152912020683289, 
0.060360137373209, 
-0.04090091958642006, 
-0.02146574668586254, 
0.05329763516783714, 
-0.10056478530168533, 
0.12308022379875183, 
0.0460740365087986, 
-0.16915905475616455, 
-0.054373133927583694, 
0.15260298550128937, 
0.23641440272331238, 
-0.030684256926178932, 
-0.04885614663362503, 
0.04002693295478821, 
0.0527459941804409, 
-0.02086261846125126, 
0.09673294425010681, 
0.02913404442369938, 
-0.00877712108194828, 
-0.08541923016309738, 
0.05262668803334236, 
-0.2853825092315674, 
-0.08177340775728226, 
0.05717857927083969, 
0.014984502457082272, 
-0.14513908326625824, 
-0.13708458840847015, 
0.08796422183513641, 
-0.013704818673431873, 
-0.06835809350013733, 
-0.005564313847571611, 
-0.006151100620627403, 
-0.022883495315909386, 
0.06327129155397415, 
-0.09838546812534332, 
-0.008855598047375679, 
0.0724601075053215, 
0.057899266481399536, 
-0.06573450565338135, 
-0.005033239722251892, 
0.02391304075717926, 
-0.19053854048252106, 
0.17381484806537628, 
-0.16177240014076233, 
0.08001358062028885, 
-0.05186808854341507, 
0.22283487021923065, 
-0.05505808815360069, 
-0.008837348781526089, 
-0.10974151641130447, 
0.023587040603160858, 
-0.09938674420118332, 
0.23444192111492157, 
-0.14355242252349854, 
0.2640976011753082, 
-0.16274653375148773, 
0.09008549898862839, 
-0.05693906918168068, 
0.22952036559581757, 
0.41837078332901, 
-0.02209302969276905, 
0.4865628778934479, 
-0.3636147379875183, 
0.0396440289914608, 
-0.40441516041755676, 
-0.06167349964380264, 
0.25796079635620117, 
-0.13461889326572418, 
0.03571752831339836, 
0.07566866278648376, 
-0.09126919507980347, 
0.08481959253549576, 
0.11810153722763062, 
0.008819563314318657, 
-0.04100208356976509, 
-0.012119208462536335, 
-0.12967368960380554, 
0.08264297991991043, 
0.09810636192560196, 
-0.019302966073155403, 
0.003906843718141317, 
-0.010598103515803814, 
0.09493762254714966, 
0.13090482354164124, 
-0.18661078810691833, 
0.12517085671424866, 
0.11343077570199966, 
-0.23215621709823608, 
0.17056839168071747, 
0.13490088284015656, 
0.12216661125421524, 
0.16923683881759644, 
-0.12649302184581757, 
-0.31604665517807007, 
-0.06505617499351501, 
0.018973316997289658, 
0.15871408581733704, 
-0.0795641764998436, 
0.1257246881723404, 
-0.05849739536643028, 
0.011160239577293396, 
-0.12233106791973114, 
0.11656957119703293, 
-0.13446716964244843, 
0.1549774557352066, 
-0.36277520656585693, 
-0.22820381820201874, 
0.06683749705553055, 
0.18430636823177338, 
0.10882016271352768, 
-0.11809280514717102, 
0.20171602070331573, 
-0.15804031491279602, 
0.1807834953069687, 
-0.16565632820129395, 
0.000637835415545851, 
0.12583187222480774, 
0.03808871656656265, 
-0.18256863951683044, 
-0.1841619312763214, 
-0.19427815079689026, 
-0.3021606206893921, 
0.16467541456222534, 
0.19174924492835999, 
0.2037522792816162, 
-0.34711870551109314, 
0.12968693673610687, 
-0.011536882258951664, 
0.04349423944950104, 
-0.06134769320487976, 
0.004689574241638184, 
-0.0929550901055336, 
0.12173788994550705, 
-0.10538337379693985, 
0.19840306043624878, 
-0.01755300536751747, 
0.11328136920928955, 
-0.2345992773771286, 
0.14885318279266357, 
0.41006311774253845, 
-0.4525220990180969, 
0.32366764545440674, 
0.04536230117082596, 
-0.32597699761390686, 
0.06742092221975327, 
-0.22009903192520142, 
0.2182319164276123, 
0.21085509657859802, 
-0.276113897562027, 
0.03457268327474594, 
-0.023085523396730423, 
-0.07002648711204529, 
0.08750913292169571, 
-0.09440972656011581, 
0.12966032326221466, 
-0.04532086104154587, 
-0.051839955151081085, 
0.27265629172325134, 
-0.015420160256326199, 
-0.08403431624174118, 
0.11785615235567093, 
0.056818634271621704, 
-0.0814339816570282, 
0.004611689131706953, 
-0.19536037743091583, 
0.12279269099235535, 
-0.027667302638292313, 
-0.23165510594844818, 
0.03432439640164375, 
0.1228652223944664, 
-0.09775974601507187, 
0.06915861368179321, 
-0.01395387388765812, 
-0.26354116201400757, 
0.011293855495750904, 
-0.021855877712368965, 
-0.011655892245471478, 
-0.050870876759290695, 
0.19829045236110687, 
0.0781317949295044, 
-0.1941019743680954, 
0.023465236648917198, 
0.06350793689489365, 
0.06646207720041275, 
0.16795134544372559, 
-0.2920167148113251, 
-0.09652592241764069, 
0.08898630738258362, 
0.2757376730442047, 
0.05877066031098366, 
0.013246551156044006, 
0.10549447685480118, 
-0.33848345279693604, 
0.08058054000139236, 
-0.45543792843818665, 
-0.05320959538221359, 
-0.03480853512883186, 
0.05085458606481552, 
-0.1569586992263794, 
-0.039801448583602905, 
0.09420540183782578, 
-0.15820308029651642, 
0.01268829870969057, 
0.04602588713169098, 
0.035853248089551926, 
0.03731963410973549, 
-0.0516841821372509, 
-0.06634214520454407, 
0.006914603058248758, 
0.07149970531463623, 
0.024422409012913704, 
-0.045807670801877975, 
0.12826597690582275, 
-0.11800951510667801, 
0.18227243423461914, 
0.06979266554117203, 
0.29178664088249207, 
-0.12166664004325867, 
0.21216367185115814, 
0.24417343735694885, 
-0.3563697934150696, 
0.267753928899765, 
0.1701219081878662, 
-0.469419926404953, 
0.18015918135643005, 
-0.31099945306777954, 
-0.06536102294921875, 
0.20294511318206787, 
0.07097894698381424, 
-0.3038438856601715, 
0.08900363743305206, 
-0.014580913819372654, 
-0.21375960111618042, 
-0.031075064092874527, 
-0.2617062032222748, 
0.1672181785106659, 
-0.11128885298967361, 
0.06617901474237442, 
-0.17448770999908447, 
-0.06391490250825882, 
0.06878309696912766, 
-0.09677746891975403, 
-0.028639480471611023, 
0.04637407884001732, 
-0.22133299708366394, 
0.04246076941490173, 
8.488131425110623e-05, 
-0.1995760202407837, 
0.08200393617153168, 
0.10057828575372696, 
-0.028831912204623222, 
0.06366965919733047, 
0.14766740798950195, 
-0.1352144330739975, 
0.07278452813625336, 
-0.2018815279006958, 
-0.041340943425893784, 
-0.15232785046100616, 
-0.038003258407115936, 
0.026923324912786484, 
-0.12758861482143402, 
-0.04347053915262222, 
-0.004806547425687313, 
-0.11272083222866058, 
0.029068661853671074, 
-0.1161874458193779, 
0.06776992976665497, 
0.26661258935928345, 
-0.10043974965810776, 
-0.005795060656964779, 
-0.02403692528605461, 
0.1437830924987793, 
-0.21262545883655548, 
0.3012574315071106, 
-0.36387571692466736, 
0.01020666304975748, 
-0.02054518647491932, 
-0.02612854726612568, 
-0.10576202720403671, 
0.027183327823877335, 
-0.1631178855895996, 
-0.06579851359128952, 
0.05982053652405739, 
-0.02424575388431549, 
0.033265624195337296, 
0.07022663205862045, 
0.016212256625294685, 
-0.226577490568161, 
0.051479943096637726, 
-0.03273158147931099, 
-0.15698784589767456, 
-0.020241446793079376, 
-0.0016921741189435124, 
-0.06223732978105545, 
0.1537502408027649, 
0.0741862803697586, 
-0.09939391165971756, 
-0.26619577407836914, 
0.6123113036155701, 
-0.06840928643941879, 
0.029222825542092323, 
-0.1613164097070694, 
0.08700744062662125, 
-0.241239532828331, 
0.2012791633605957, 
-0.3897865116596222, 
-0.15265338122844696, 
0.18315312266349792, 
0.014884952455759048, 
-0.11682230979204178, 
0.06968314200639725, 
-0.0033404487185180187, 
-0.05806059017777443, 
0.02924126200377941, 
-0.21790920197963715, 
0.1447383612394333, 
-0.11703460663557053, 
-0.00874076597392559, 
0.07199522107839584, 
-0.11421387642621994, 
-0.17527224123477936, 
-0.03471275418996811, 
-0.017328333109617233, 
0.056706640869379044, 
-0.03785432130098343, 
-0.0658470168709755, 
0.10669568926095963, 
-0.30650070309638977, 
0.26892948150634766, 
0.023493044078350067, 
0.12622326612472534, 
0.12169209122657776, 
-0.012663188390433788, 
-0.24589933454990387, 
0.04850597307085991, 
-0.28470900654792786, 
0.07961498200893402, 
-0.01790465973317623, 
0.09411372244358063, 
0.06930489838123322, 
-0.31091034412384033, 
0.047570157796144485, 
0.1519128382205963, 
0.0005947068566456437, 
0.1921459138393402, 
0.11494436860084534, 
-0.011155861429870129, 
0.18350443243980408, 
0.03505237400531769, 
-0.13281923532485962, 
0.07866746932268143, 
0.026468180119991302, 
-0.0067351944744586945, 
-0.01692872680723667, 
-0.17252099514007568, 
-0.009459921158850193, 
0.14153829216957092, 
-0.10260722041130066, 
-0.0010167028522118926, 
-0.1382080465555191, 
-0.16814109683036804, 
0.0879727378487587, 
0.16858398914337158, 
-0.15393571555614471, 
0.04794072359800339, 
0.1523365080356598, 
0.0593109130859375, 
0.0021847584284842014, 
-0.038736358284950256, 
-0.15794067084789276, 
0.036377452313899994, 
-0.14069809019565582, 
0.2152559459209442, 
-0.05906716361641884, 
-0.033213067799806595, 
-0.08047355711460114, 
-0.16950814425945282, 
-0.05099334567785263, 
0.41641944646835327, 
0.09829888492822647, 
0.01325333584100008, 
0.055125892162323, 
-0.03370315209031105, 
-0.07634448260068893, 
-0.01012524962425232, 
-0.0709310919046402, 
0.09734152257442474, 
0.05758493393659592, 
0.092157743871212, 
-0.016302306205034256, 
-0.0001949726283783093, 
-0.10776867717504501, 
-0.04158412292599678, 
0.06450662016868591, 
-0.0117640420794487, 
-0.08200227469205856, 
-0.07390143722295761, 
0.13193199038505554, 
-0.011277500540018082, 
-0.16052962839603424, 
-0.009573754854500294, 
-0.087583988904953, 
0.039198700338602066, 
0.0672515258193016, 
-0.13387590646743774, 
-0.11933153122663498, 
0.0902785062789917, 
-0.059642259031534195, 
-0.0016651971964165568, 
0.007532096933573484, 
-0.024442438036203384, 
-0.1038607507944107, 
-0.026299932971596718, 
-0.09684900939464569, 
-0.10070917010307312, 
-0.0782713070511818, 
0.16946284472942352, 
-0.07448089122772217, 
0.06052565947175026, 
-0.10735467821359634, 
-0.06716050207614899, 
-0.04127642139792442, 
0.3128255009651184, 
-0.12834523618221283, 
-0.011295344680547714, 
-0.09957469999790192, 
-0.11061991751194, 
0.20742389559745789, 
0.0034131123684346676, 
-0.1330411732196808, 
-0.014309289865195751, 
-0.05082744359970093, 
-0.04674789309501648, 
0.11953268945217133, 
-0.1195104643702507, 
-0.02262704074382782, 
0.09122620522975922, 
-0.1284848302602768, 
-0.13160443305969238, 
-0.05060445889830589, 
-0.07878274470567703, 
-0.012061701156198978, 
0.10639981180429459, 
0.11134190857410431, 
0.042405255138874054, 
-0.04688849672675133, 
0.09984501451253891, 
-0.036292146891355515, 
0.036688514053821564, 
-0.07414024323225021, 
-0.13788332045078278, 
0.05232672020792961, 
0.16917194426059723, 
0.055360548198223114, 
0.026454666629433632, 
-0.07937141507863998, 
-0.015955297276377678, 
-0.002315292600542307, 
-0.12429477274417877, 
0.022307295352220535, 
-0.08646438270807266, 
0.032548293471336365, 
-0.1399243026971817, 
-0.018129318952560425, 
-0.11869443953037262, 
-0.010444901883602142, 
0.0811329334974289, 
0.09415552020072937, 
0.020698104053735733, 
-0.04360394924879074, 
0.15215598046779633, 
0.10291658341884613, 
0.15336132049560547, 
0.11839515715837479, 
-0.013186860829591751, 
-0.006433531176298857, 
0.004841471090912819, 
0.17318882048130035, 
0.07645327597856522, 
-0.11060329526662827, 
0.1053982824087143, 
0.052876874804496765, 
-0.026219572871923447, 
0.09522565454244614, 
0.03231506422162056, 
-0.027407895773649216, 
0.02389596588909626, 
0.12602916359901428, 
-0.0388878732919693, 
-0.13439995050430298, 
0.013664455153048038, 
0.053295236080884933, 
0.05056474730372429, 
-0.06036943569779396, 
-0.04839644208550453, 
-0.14900505542755127, 
-0.06008506193757057, 
-0.01563223823904991, 
0.022341877222061157, 
0.03183760121464729, 
0.023926008492708206, 
-0.09254765510559082, 
-0.0645417794585228, 
-0.11565817892551422, 
-0.004587298724800348, 
-0.044813502579927444, 
-0.08486287295818329, 
0.05838433653116226, 
0.00018490533693693578, 
-0.07454649358987808, 
-0.056636467576026917, 
-0.014219829812645912, 
-0.04237787798047066, 
0.0020433561876416206, 
-0.09976732730865479, 
-0.055653639137744904, 
0.08633901178836823, 
-0.03444705903530121, 
0.1612413227558136, 
-0.10697704553604126, 
-0.15070335566997528, 
-0.027405640110373497, 
0.16556893289089203, 
-0.05895695835351944, 
-0.06505509465932846, 
-0.0710342600941658, 
0.13714802265167236, 
0.015926087275147438, 
0.09812784194946289, 
0.1472613662481308, 
-0.3063230514526367, 
0.0706649124622345, 
0.2364877462387085, 
0.02222050353884697, 
0.10280467569828033, 
-0.2083098143339157, 
0.04014865309000015, 
-0.03433336690068245, 
0.13234369456768036, 
0.029452549293637276, 
-0.1372280865907669, 
0.07193382829427719, 
-0.04512235149741173, 
-0.1221785917878151, 
-0.03430554270744324, 
-0.1264084130525589, 
-0.06070242449641228, 
-0.06702066957950592, 
0.023851394653320312, 
0.050874464213848114, 
-0.09889386594295502, 
0.02903938852250576, 
0.05994786322116852, 
-0.0103645920753479, 
-0.0537555105984211, 
-0.14222924411296844, 
-0.08205129206180573, 
0.011019246652722359, 
0.12176787108182907, 
-0.001679804758168757, 
-0.07174063473939896, 
-0.024727201089262962, 
0.09447076916694641, 
0.03085554763674736, 
-0.009366846643388271, 
-0.108494333922863, 
-0.0004353397525846958, 
-0.09015675634145737, 
0.09442313015460968, 
0.1936904489994049, 
-0.3419828414916992, 
0.1397155225276947, 
0.06734101474285126, 
-0.0539216510951519, 
-0.004954380914568901, 
-0.445848286151886, 
0.07586704939603806, 
0.056903958320617676, 
0.17775854468345642, 
-0.01575080305337906, 
-0.23529410362243652, 
0.0939602330327034, 
0.2700327932834625, 
0.05102507397532463, 
0.05484401807188988, 
-0.15111947059631348, 
-0.021567361429333687, 
0.20342658460140228, 
0.08450330793857574, 
-0.015306665562093258, 
0.015390350483357906, 
0.03458311781287193, 
-0.01871522143483162, 
0.06786852329969406, 
-0.09975966811180115, 
0.0037542651407420635, 
-0.12130317836999893, 
0.06191359832882881, 
-0.05306755751371384, 
-0.053717467933893204, 
0.009442141279578209, 
-0.05363078415393829, 
-0.06274823099374771, 
0.06691308319568634, 
0.006351944524794817, 
0.009168093092739582, 
0.08604451268911362, 
-0.08141013234853745, 
-0.01700032316148281, 
0.12997280061244965, 
-0.010987876914441586, 
0.055049918591976166, 
0.11854802072048187, 
-0.14482374489307404, 
0.21237727999687195, 
-0.09127558022737503, 
0.19477376341819763, 
-0.007525792345404625, 
-0.2730315327644348, 
0.44193124771118164, 
0.020227598026394844, 
0.17675495147705078, 
0.005193728022277355, 
-0.11623705178499222, 
-0.0023776651360094547, 
-0.11412696540355682, 
0.08111995458602905, 
0.10071941465139389, 
-0.24509823322296143, 
0.06469161063432693, 
0.24120880663394928, 
-0.06995819509029388, 
0.055182404816150665, 
0.009500628337264061, 
0.14991654455661774, 
0.021606983616948128, 
-0.08994448930025101, 
0.15219177305698395, 
-0.11573932319879532, 
-0.062123335897922516, 
0.012961954809725285, 
-0.101800836622715, 
0.05222344398498535, 
0.14936986565589905, 
-0.14509548246860504, 
0.11870400607585907, 
0.07934489846229553, 
-0.055323924869298935, 
0.07799365371465683, 
0.15648479759693146, 
-0.10861720144748688, 
0.11650270968675613, 
0.06563200801610947, 
-0.029672270640730858, 
0.07858874648809433, 
-0.3093129098415375, 
-0.07086566835641861, 
-0.13153456151485443, 
0.054914772510528564, 
0.01245996356010437, 
-0.014248790219426155, 
0.002438418800011277, 
0.04667689651250839, 
-0.09293252229690552, 
0.13508933782577515, 
-0.04952782765030861, 
-0.026230134069919586, 
0.18518280982971191, 
0.0031779236160218716, 
-0.06719690561294556, 
0.050640370696783066, 
0.022621585056185722, 
-0.009345665574073792, 
0.15317551791667938, 
-0.20258046686649323, 
-0.012994134798645973, 
-0.08847611397504807, 
0.02874629944562912, 
-0.45144346356391907, 
-0.011520063504576683, 
0.2201535403728485, 
-0.1576659381389618, 
-0.1607338786125183, 
0.1044316440820694, 
-0.03883468732237816, 
0.4139045476913452, 
-0.01474531926214695, 
-0.02682626061141491, 
0.011913851834833622, 
-0.0700388103723526, 
0.05851078778505325, 
-0.06737222522497177, 
0.004011149518191814, 
-0.11997170746326447, 
0.06674974411725998, 
0.06465796381235123, 
0.17481717467308044, 
0.019783632829785347, 
-0.18119338154792786, 
-0.04599025845527649, 
-0.14698325097560883, 
0.09627875685691833, 
0.12828658521175385, 
-0.2549898326396942, 
0.1784072369337082, 
-0.16818594932556152, 
-0.1572723388671875, 
0.21513083577156067, 
0.0384720079600811, 
-0.2428143471479416, 
0.23063498735427856, 
-0.19317716360092163, 
-0.12193332612514496, 
0.15029333531856537, 
-0.06182202324271202, 
0.24641042947769165, 
0.056845370680093765, 
0.13774780929088593, 
-0.08353884518146515, 
-0.09435762465000153, 
0.0009706710698083043, 
0.08272933959960938, 
-0.14421206712722778, 
-0.015059965662658215, 
-0.055181678384542465, 
0.2584933936595917, 
0.09111926704645157, 
-0.04573165997862816, 
0.05755774304270744, 
0.08521322906017303, 
0.07662645727396011, 
0.059399571269750595, 
0.05180947482585907, 
-0.08646050095558167, 
0.06683392077684402, 
-0.04153301194310188, 
-0.010320726782083511, 
0.027181215584278107, 
-0.17257976531982422, 
0.054587531834840775, 
0.1911795437335968, 
-0.007223852444440126, 
-0.008180204778909683, 
0.06940945237874985, 
0.08114274591207504, 
0.23524469137191772, 
-0.05320257693529129, 
0.24511870741844177, 
-5.6905482779257e-05, 
-0.02523469366133213, 
0.030412157997488976, 
0.03648902475833893, 
0.10560951381921768, 
0.14579220116138458, 
-0.0782763659954071, 
-0.10037564486265182, 
-0.08754988014698029, 
-0.0009315002243965864, 
-0.10387074947357178, 
-0.1498110145330429, 
-0.03893496096134186, 
-0.3001689016819, 
-0.032730042934417725, 
0.11118881404399872, 
-0.0048636095598340034, 
0.06560765951871872, 
-0.0010884621879085898, 
-0.08346055448055267, 
0.3144778907299042, 
-0.17218370735645294, 
-0.2699033319950104, 
-0.1482824832201004, 
0.029996508732438087, 
-0.04700430482625961, 
0.08367161452770233, 
0.06251891702413559, 
0.07765781879425049, 
-0.04946395009756088, 
0.49466535449028015, 
-0.1722336858510971, 
0.06887038797140121, 
-0.11304023861885071, 
-0.13434848189353943, 
-0.14296124875545502, 
0.06384627521038055, 
0.07606612890958786, 
-0.20680668950080872, 
0.0796595886349678, 
-0.037913527339696884, 
-0.07659442722797394, 
-0.09912808984518051, 
-0.004384301137179136, 
-0.06327484548091888, 
-0.05851954594254494, 
-0.06518856436014175, 
0.05523288995027542, 
-0.12917180359363556, 
-0.004050529096275568, 
0.00940115936100483, 
0.0028347442857921124, 
0.03122761845588684, 
0.0057984753511846066, 
0.03879159316420555, 
0.0626007542014122, 
-0.0755479484796524, 
-0.02240365743637085, 
0.0661626011133194, 
-0.1260078400373459, 
0.20492328703403473, 
0.0071782139129936695, 
-0.1008763536810875, 
-0.014250393025577068, 
0.01474407222121954, 
-0.17088547348976135, 
0.10523060709238052, 
-0.054086752235889435, 
0.008740048855543137, 
-0.05490008369088173, 
0.014224881306290627, 
-0.11566004157066345, 
-0.06168347969651222, 
-0.24136188626289368, 
0.04226236045360565, 
0.14354023337364197, 
0.13139459490776062, 
0.09746728837490082, 
-0.0346420519053936, 
0.07894790172576904, 
-0.05646820738911629, 
-0.09748923033475876, 
-0.0008564769523218274, 
-0.015045667998492718, 
-0.06391429901123047, 
-0.032650671899318695, 
-0.1305195689201355, 
-0.07760036736726761, 
-0.06479820609092712, 
-0.12067405879497528, 
0.19337792694568634, 
0.006524305325001478, 
-0.15922431647777557, 
0.058195702731609344, 
-0.07633503526449203, 
-0.013268238864839077, 
-0.04588951915502548, 
0.09309631586074829, 
-0.07080981880426407, 
-0.11764983832836151, 
0.1970721185207367, 
-0.15142107009887695, 
-0.15061204135417938, 
0.07810558378696442, 
0.005813680589199066, 
-0.20083832740783691, 
-0.0911223366856575, 
0.03581057861447334, 
0.06103885918855667, 
-0.10829523205757141, 
0.20954389870166779, 
-0.0781465396285057, 
0.04375065490603447, 
-0.09968797862529755, 
-0.12746639549732208, 
0.019966410472989082, 
-0.02932131290435791, 
-0.0335892029106617, 
-0.10214052349328995, 
0.02498040720820427, 
-0.01799667999148369, 
-0.09690014272928238, 
0.039141181856393814, 
-0.00823285337537527, 
0.12286792695522308, 
-0.07007898390293121, 
0.0395238995552063, 
0.047423046082258224, 
-0.09251820296049118, 
0.004277618136256933, 
0.09992088377475739, 
-0.1629510223865509, 
-0.05393187701702118, 
0.011471925303339958, 
0.018684983253479004, 
0.04567280411720276, 
0.011627859435975552, 
-0.08304551988840103, 
-0.08813610672950745, 
0.055236220359802246, 
0.03698299080133438, 
-0.15299047529697418, 
-0.10695391893386841, 
0.013822810724377632, 
0.1851094365119934, 
-0.02249303087592125, 
0.03867832198739052, 
-0.06838876008987427, 
0.1281283050775528, 
0.010257473215460777, 
0.11407610774040222, 
-0.07198073714971542, 
0.008775969967246056, 
-0.09674197435379028, 
-0.014641893096268177, 
-0.045186251401901245, 
-0.06789311021566391, 
0.0766897201538086, 
0.015114830806851387, 
0.18551072478294373, 
0.04965697601437569, 
-0.04552906006574631, 
0.015278016217052937, 
0.009110639803111553, 
0.018835358321666718, 
0.13809730112552643, 
-0.04603493958711624, 
0.03801615163683891 
}

double b5[10] = { 
-0.11387661099433899, 
0.5836697816848755, 
0.0740741416811943, 
-0.20103447139263153, 
0.014935069717466831, 
-0.03017151728272438, 
-0.03133483976125717, 
0.20571768283843994, 
-0.4210454821586609, 
-0.0809273049235344 
}

